2.076015925632251555e-02
8.972142148837403131e-03
8.925641932394316324e-05
-6.512354316516482007e-03
-1.095656280996921625e-02
-1.317479703673347588e-02
-1.310914393150286288e-02
-1.081904805499063829e-02
-6.487234108905921316e-03
-3.284000964045792658e-04
7.319700475942409780e-03
1.608176208703983789e-03
-2.769702035669591167e-03
-5.944462939660590840e-03
-7.827340092173239866e-03
-8.296571124215595255e-03
-7.330754495621735582e-03
-5.074280537609460011e-03
-1.822360653952956105e-03
2.068264910278513370e-03
1.783221245715230566e-02
9.352067925358665060e-03
2.939795496752488357e-03
-1.942849552154848067e-03
-5.408781812442892134e-03
-7.384215666453005159e-03
-7.777644849898717599e-03
-6.583522718422141727e-03
-3.910952640128434292e-03
6.603112949322455238e-05
2.076015925639842011e-02
8.972142148936466249e-03
8.925641944734931778e-05
-6.512354316371099169e-03
-1.095656280980663970e-02
-1.317479703655938771e-02
-1.310914393132691855e-02
-1.081904805482186704e-02
-6.487234108751838840e-03
-3.284000962701624825e-04
7.319700476029963876e-03
1.608176208819237733e-03
-2.769702035526508139e-03
-5.944462939490865495e-03
-7.827340091981707312e-03
-8.296571124009839704e-03
-7.330754495413074369e-03
-5.074280537409922576e-03
-1.822360653767999238e-03
2.068264910439900333e-03
1.783221245716714101e-02
9.352067925378055799e-03
2.939795496776520349e-03
-1.942849552126891480e-03
-5.408781812411925585e-03
-7.384215666419744438e-03
-7.777644849865634688e-03
-6.583522718390034598e-03
-3.910952640099421042e-03
6.603112951887970313e-05
2.076015925638271392e-02
8.972142148916398968e-03
8.925641942182681917e-05
-6.512354316400817585e-03
-1.095656280984012854e-02
-1.317479703659521842e-02
-1.310914393136295569e-02
-1.081904805485504190e-02
-6.487234108783557392e-03
-3.284000962973023939e-04
7.319700476010823804e-03
1.608176208793483594e-03
-2.769702035557077002e-03
-5.944462939528884562e-03
-7.827340092023146387e-03
-8.296571124055674568e-03
-7.330754495458304681e-03
-5.074280537453863989e-03
-1.822360653807565244e-03
2.068264910404049237e-03
1.783221245716357442e-02
9.352067925373344290e-03
2.939795496771000459e-03
-1.942849552133448735e-03
-5.408781812419665921e-03
-7.384215666427450947e-03
-7.777644849873602273e-03
-6.583522718397668248e-03
-3.910952640106337384e-03
6.603112951299592768e-05
2.076015925630750325e-02
8.972142148817266460e-03
8.925641929815271761e-05
-6.512354316546313179e-03
-1.095656281000353428e-02
-1.317479703676882434e-02
-1.310914393153913421e-02
-1.081904805502450356e-02
-6.487234108938272174e-03
-3.284000964317736041e-04
7.319700475924908155e-03
1.608176208681414603e-03
-2.769702035697636875e-03
-5.944462939694274833e-03
-7.827340092209493852e-03
-8.296571124257081167e-03
-7.330754495661905706e-03
-5.074280537648284857e-03
-1.822360653988140851e-03
2.068264910247359471e-03
1.783221245714944683e-02
9.352067925354931935e-03
2.939795496748294663e-03
-1.942849552159973741e-03
-5.408781812449046933e-03
-7.384215666458703725e-03
-7.777644849904756172e-03
-6.583522718427880192e-03
-3.910952640134420823e-03
6.603112948873384120e-05
2.076015925663680581e-02
8.972142149250345380e-03
8.925641983618864202e-05
-6.512354315911514542e-03
-1.095656280929127938e-02
-1.317479703601033732e-02
-1.310914393077131958e-02
-1.081904805428560677e-02
-6.487234108264970482e-03
-3.284000958480424613e-04
7.319700476300468849e-03
1.608176209174905702e-03
-2.769702035082278850e-03
-5.944462938964497484e-03
-7.827340091389996604e-03
-8.296571123376932783e-03
-7.330754494768913429e-03
-5.074280536787175930e-03
-1.822360653194389718e-03
2.068264910939716233e-03
1.783221245721263240e-02
9.352067925436847312e-03
2.939795496848925539e-03
-1.942849552041789633e-03
-5.408781812317194071e-03
-7.384215666319832172e-03
-7.777644849764113466e-03
-6.583522718292940390e-03
-3.910952640010339522e-03
6.603112959630786575e-05
2.076015925664698170e-02
8.972142149263910918e-03
8.925641985375399115e-05
-6.512354315891713541e-03
-1.095656280926707131e-02
-1.317479703598614833e-02
-1.310914393074756081e-02
-1.081904805426339190e-02
-6.487234108243521494e-03
-3.284000958289754650e-04
7.319700476314161888e-03
1.608176209193160197e-03
-2.769702035060108650e-03
-5.944462938938422855e-03
-7.827340091359422103e-03
-8.296571123345851742e-03
-7.330754494736631960e-03
-5.074280536756335148e-03
-1.822360653164654823e-03
2.068264910965561011e-03
1.783221245721512693e-02
9.352067925440266452e-03
2.939795496853248469e-03
-1.942849552036989436e-03
-5.408781812312172046e-03
-7.384215666313751099e-03
-7.777644849758134742e-03
-6.583522718287292998e-03
-3.910952640005118004e-03
6.603112960081891929e-05
2.076015925660226746e-02
8.972142149204729092e-03
8.925641977975056569e-05
-6.512354315978822680e-03
-1.095656280936491318e-02
-1.317479703609015715e-02
-1.310914393085230167e-02
-1.081904805436358953e-02
-6.487234108335446225e-03
-3.284000959088696184e-04
7.319700476262811471e-03
1.608176209125449603e-03
-2.769702035144383685e-03
-5.944462939037658579e-03
-7.827340091472330050e-03
-8.296571123465122655e-03
-7.330754494858386129e-03
-5.074280536873337910e-03
-1.822360653273656607e-03
2.068264910869849812e-03
1.783221245720646025e-02
9.352067925429105241e-03
2.939795496839590124e-03
-1.942849552053058830e-03
-5.408781812329945156e-03
-7.384215666332271007e-03
-7.777644849777441347e-03
-6.583522718305669791e-03
-3.910952640022077528e-03
6.603112958640797506e-05
2.076015925662178310e-02
8.972142149230163607e-03
8.925641981137984659e-05
-6.512354315941244233e-03
-1.095656280932349146e-02
-1.317479703604466749e-02
-1.310914393080640089e-02
-1.081904805431926561e-02
-6.487234108295948307e-03
-3.284000958743407608e-04
7.319700476284514597e-03
1.608176209154040665e-03
-2.769702035107663926e-03
-5.944462938995550769e-03
-7.827340091423998919e-03
-8.296571123415192109e-03
-7.330754494805725129e-03
-5.074280536823468947e-03
-1.822360653226693088e-03
2.068264910910427162e-03
1.783221245721010317e-02
9.352067925433790729e-03
2.939795496845424433e-03
-1.942849552046181736e-03
-5.408781812322631562e-03
-7.384215666324661642e-03
-7.777644849769285544e-03
-6.583522718297968486e-03
-3.910952640015166390e-03
6.603112959268134501e-05
2.076015925683086932e-02
8.972142149504527472e-03
8.925642015191605314e-05
-6.512354315537600101e-03
-1.095656280887245294e-02
-1.317479703556400858e-02
-1.310914393032038862e-02
-1.081904805385127018e-02
-6.487234107869585369e-03
-3.284000955045263386e-04
7.319700476524700072e-03
1.608176209469182891e-03
-2.769702034714215198e-03
-5.944462938530757634e-03
-7.827340090899442826e-03
-8.296571122855362149e-03
-7.330754494236466946e-03
-5.074280536271993415e-03
-1.822360652720805222e-03
2.068264911353426966e-03
1.783221245725107040e-02
9.352067925486578365e-03
2.939795496910178191e-03
-1.942849551970285199e-03
-5.408781812237464445e-03
-7.384215666235174197e-03
-7.777644849678921196e-03
-6.583522718210716232e-03
-3.910952639935164413e-03
6.603112966199565028e-05
2.076015925680447377e-02
8.972142149470136580e-03
8.925642011042072221e-05
-6.512354315589062408e-03
-1.095656280892683306e-02
-1.317479703562324245e-02
-1.310914393038099639e-02
-1.081904805391101232e-02
-6.487234107922220348e-03
-3.284000955503895542e-04
7.319700476495155997e-03
1.608176209430519374e-03
-2.769702034763908086e-03
-5.944462938587280997e-03
-7.827340090965553138e-03
-8.296571122923398003e-03
-7.330754494306488192e-03
-5.074280536339917380e-03
-1.822360652782785591e-03
2.068264911299424590e-03
1.783221245724607440e-02
9.352067925480097438e-03
2.939795496902234892e-03
-1.942849551979600881e-03
-5.408781812247828551e-03
-7.384215666245762949e-03
-7.777644849689922812e-03
-6.583522718221386516e-03
-3.910952639944943049e-03
6.603112965370860519e-05
2.076015925680943855e-02
8.972142149476822204e-03
8.925642011817520719e-05
-6.512354315579172749e-03
-1.095656280891615063e-02
-1.317479703561215236e-02
-1.310914393036930262e-02
-1.081904805389919018e-02
-6.487234107911938642e-03
-3.284000955415506502e-04
7.319700476501409675e-03
1.608176209438614461e-03
-2.769702034752954175e-03
-5.944462938575966263e-03
-7.827340090951404733e-03
-8.296571122908968574e-03
-7.330754494290805424e-03
-5.074280536325787190e-03
-1.822360652768900430e-03
2.068264911310291766e-03
1.783221245724712564e-02
9.352067925481481747e-03
2.939795496904091046e-03
-1.942849551977415996e-03
-5.408781812245425091e-03
-7.384215666243243263e-03
-7.777644849687033630e-03
-6.583522718218745400e-03
-3.910952639942633265e-03
6.603112965584155612e-05
2.076015925680045615e-02
8.972142149464516075e-03
8.925642010281120860e-05
-6.512354315596696926e-03
-1.095656280893658741e-02
-1.317479703563369763e-02
-1.310914393039117401e-02
-1.081904805391984033e-02
-6.487234107931190603e-03
-3.284000955580431000e-04
7.319700476490074992e-03
1.608176209424443288e-03
-2.769702034771315789e-03
-5.944462938597358873e-03
-7.827340090975356060e-03
-8.296571122935044937e-03
-7.330754494316598160e-03
-5.074280536350925068e-03
-1.822360652793834045e-03
2.068264911290404462e-03
1.783221245724509602e-02
9.352067925479077420e-03
2.939795496901148955e-03
-1.942849551981017065e-03
-5.408781812249699450e-03
-7.384215666247681553e-03
-7.777644849691744272e-03
-6.583522718223083076e-03
-3.910952639946779254e-03
6.603112965242120998e-05
2.076015925694875766e-02
8.972142149658768676e-03
8.925642034423698446e-05
-6.512354315311300219e-03
-1.095656280861754574e-02
-1.317479703529289038e-02
-1.310914393004630057e-02
-1.081904805358780385e-02
-6.487234107628871670e-03
-3.284000952957669508e-04
7.319700476659977278e-03
1.608176209645925192e-03
-2.769702034493553167e-03
-5.944462938268476986e-03
-7.827340090604416670e-03
-8.296571122539387472e-03
-7.330754493914439819e-03
-5.074280535961547302e-03
-1.822360652435480073e-03
2.068264911602584431e-03
1.783221245727356283e-02
9.352067925516035704e-03
2.939795496946681110e-03
-1.942849551927303088e-03
-5.408781812189556587e-03
-7.384215666184576650e-03
-7.777644849627778946e-03
-6.583522718161677334e-03
-3.910952639890400741e-03
6.603112970106991711e-05
2.076015925694158978e-02
8.972142149649139226e-03
8.925642033401191442e-05
-6.512354315325550105e-03
-1.095656280863175659e-02
-1.317479703530945873e-02
-1.310914393006318290e-02
-1.081904805360520312e-02
-6.487234107642674864e-03
-3.284000953084683793e-04
7.319700476652511896e-03
1.608176209636151327e-03
-2.769702034506716249e-03
-5.944462938283358311e-03
-7.827340090623038926e-03
-8.296571122555832650e-03
-7.330754493933151414e-03
-5.074280535978620450e-03
-1.822360652451119256e-03
2.068264911588637688e-03
1.783221245727269200e-02
9.352067925514805785e-03
2.939795496944750362e-03
-1.942849551929861588e-03
-5.408781812192130049e-03
-7.384215666187128428e-03
-7.777644849630102608e-03
-6.583522718164259470e-03
-3.910952639892726138e-03
6.603112969934398922e-05
2.076015925695424980e-02
8.972142149665763081e-03
8.925642035413672607e-05
-6.512354315300956931e-03
-1.095656280860488399e-02
-1.317479703527982444e-02
-1.310914393003414710e-02
-1.081904805357661141e-02
-6.487234107616981008e-03
-3.284000952863428487e-04
7.319700476666647290e-03
1.608176209654306292e-03
-2.769702034483718586e-03
-5.944462938257076383e-03
-7.827340090593295358e-03
-8.296571122524890388e-03
-7.330754493900660911e-03
-5.074280535948744175e-03
-1.822360652422599534e-03
2.068264911613717887e-03
1.783221245727484652e-02
9.352067925517472055e-03
2.939795496948303943e-03
-1.942849551925815129e-03
-5.408781812187940692e-03
-7.384215666182482839e-03
-7.777644849625371150e-03
-6.583522718159789955e-03
-3.910952639888662548e-03
6.603112970286356697e-05
2.076015925696347159e-02
8.972142149677900941e-03
8.925642036831018936e-05
-6.512354315283262751e-03
-1.095656280858625826e-02
-1.317479703525904419e-02
-1.310914393001269204e-02
-1.081904805355610871e-02
-6.487234107598827126e-03
-3.284000952699524223e-04
7.319700476676999253e-03
1.608176209669053176e-03
-2.769702034466080352e-03
-5.944462938235521576e-03
-7.827340090568415953e-03
-8.296571122498984027e-03
-7.330754493873469120e-03
-5.074280535922642658e-03
-1.822360652399688391e-03
2.068264911634397525e-03
1.783221245727676513e-02
9.352067925519921485e-03
2.939795496951612928e-03
-1.942849551921989630e-03
-5.408781812183904858e-03
-7.384215666177771330e-03
-7.777644849621003983e-03
-6.583522718155455748e-03
-3.910952639884859167e-03
6.603112970656721515e-05
2.076015925708701512e-02
8.972142149839825234e-03
8.925642056964773897e-05
-6.512354315045354967e-03
-1.095656280831932942e-02
-1.317479703497495026e-02
-1.310914392972533336e-02
-1.081904805327940818e-02
-6.487234107346784816e-03
-3.284000950515736134e-04
7.319700476817268125e-03
1.608176209852957500e-03
-2.769702034235914639e-03
-5.944462937963099734e-03
-7.827340090261283162e-03
-8.296571122170781284e-03
-7.330754493539620720e-03
-5.074280535600897424e-03
-1.822360652102420321e-03
2.068264911893363117e-03
1.783221245730015961e-02
9.352067925550322514e-03
2.939795496989017036e-03
-1.942849551878094837e-03
-5.408781812135153057e-03
-7.384215666126021926e-03
-7.777644849568945799e-03
-6.583522718105188666e-03
-3.910952639839028640e-03
6.603112974687919362e-05
2.076015925730272452e-02
8.972142150121688309e-03
8.925642092089567325e-05
-6.512354314632352002e-03
-1.095656280785416679e-02
-1.317479703448053673e-02
-1.310914392922427757e-02
-1.081904805280001561e-02
-6.487234106907542423e-03
-3.284000946708790056e-04
7.319700477061067030e-03
1.608176210172453666e-03
-2.769702033837790397e-03
-5.944462937489926151e-03
-7.827340089730936562e-03
-8.296571121601713922e-03
-7.330754492961362792e-03
-5.074280535040653732e-03
-1.822360651588875819e-03
2.068264912341909265e-03
1.783221245734092561e-02
9.352067925603045964e-03
2.939795497053520126e-03
-1.942849551802600539e-03
-5.408781812050346763e-03
-7.384215666036476368e-03
-7.777644849478415785e-03
-6.583522718018519279e-03
-3.910952639759031867e-03
6.603112981568101008e-05
2.076015925715222685e-02
8.972142149924856175e-03
8.925642067645101776e-05
-6.512354314920315232e-03
-1.095656280817769099e-02
-1.317479703482505801e-02
-1.310914392957308362e-02
-1.081904805313421702e-02
-6.487234107213672545e-03
-3.284000949359127145e-04
7.319700476890655602e-03
1.608176209948477880e-03
-2.769702034116416911e-03
-5.944462937821954826e-03
-7.827340090103381692e-03
-8.296571122000835630e-03
-7.330754493366525675e-03
-5.074280535433016957e-03
-1.822360651948662239e-03
2.068264912027475456e-03
1.783221245731227145e-02
9.352067925565959311e-03
2.939795497007988839e-03
-1.942849551855846575e-03
-5.408781812110087170e-03
-7.384215666099586475e-03
-7.777644849542038503e-03
-6.583522718079763691e-03
-3.910952639815145834e-03
6.603112976688060951e-05
2.076015925721456240e-02
8.972142150005999600e-03
8.925642077733237072e-05
-6.512354314800510892e-03
-1.095656280804400799e-02
-1.317479703468267191e-02
-1.310914392942901310e-02
-1.081904805299561088e-02
-6.487234107087466208e-03
-3.284000948259394319e-04
7.319700476960259647e-03
1.608176210040581939e-03
-2.769702034001566508e-03
-5.944462937686184958e-03
-7.827340089949745908e-03
-8.296571121836449764e-03
-7.330754493199269708e-03
-5.074280535272766672e-03
-1.822360651799841830e-03
2.068264912157083153e-03
1.783221245732385940e-02
9.352067925581093039e-03
2.939795497026751175e-03
-1.942849551834066471e-03
-5.408781812085791500e-03
-7.384215666073728687e-03
-7.777644849516497302e-03
-6.583522718054595456e-03
-3.910952639792636062e-03
6.603112978711823239e-05
2.076015925725013464e-02
8.972142150052880502e-03
8.925642083536402096e-05
-6.512354314731564307e-03
-1.095656280796706954e-02
-1.317479703460084500e-02
-1.310914392934591638e-02
-1.081904805291545452e-02
-6.487234107015333803e-03
-3.284000947632269556e-04
7.319700477001131467e-03
1.608176210093473007e-03
-2.769702033935825692e-03
-5.944462937607144885e-03
-7.827340089861396441e-03
-8.296571121741969784e-03
-7.330754493103156487e-03
-5.074280535179742126e-03
-1.822360651714334057e-03
2.068264912231978104e-03
1.783221245733058666e-02
9.352067925589716349e-03
2.939795497037668223e-03
-1.942849551821333384e-03
-5.408781812071952744e-03
-7.384215666058800524e-03
-7.777644849501347962e-03
-6.583522718040205057e-03
-3.910952639779552778e-03
6.603112979894252773e-05
2.076015925730576028e-02
8.972142150125950524e-03
8.925642092549206704e-05
-6.512354314624959478e-03
-1.095656280784917253e-02
-1.317479703447351110e-02
-1.310914392921668468e-02
-1.081904805279182251e-02
-6.487234106902719025e-03
-3.284000946648578346e-04
7.319700477064712552e-03
1.608176210177071934e-03
-2.769702033832202419e-03
-5.944462937483915334e-03
-7.827340089722580399e-03
-8.296571121593009079e-03
-7.330754492953516638e-03
-5.074280535033698358e-03
-1.822360651580885683e-03
2.068264912348186796e-03
1.783221245734149460e-02
9.352067925603828324e-03
2.939795497054617773e-03
-1.942849551801625625e-03
-5.408781812049199243e-03
-7.384215666035386962e-03
-7.777644849477076579e-03
-6.583522718017338800e-03
-3.910952639757868735e-03
6.603112981665891978e-05
2.076015925729875894e-02
8.972142150116511894e-03
8.925642091486058383e-05
-6.512354314638342002e-03
-1.095656280786137977e-02
-1.317479703448836206e-02
-1.310914392923175596e-02
-1.081904805280766227e-02
-6.487234106915212503e-03
-3.284000946770516938e-04
7.319700477057142218e-03
1.608176210166992323e-03
-2.769702033844423112e-03
-5.944462937499085491e-03
-7.827340089739542525e-03
-8.296571121611263575e-03
-7.330754492970550755e-03
-5.074280535052134999e-03
-1.822360651596797434e-03
2.068264912334391407e-03
1.783221245734016580e-02
9.352067925602079723e-03
2.939795497052402097e-03
-1.942849551804000461e-03
-5.408781812052042455e-03
-7.384215666038192877e-03
-7.777644849479968363e-03
-6.583522718020123898e-03
-3.910952639760423115e-03
6.603112981447593292e-05
2.076015925734335868e-02
8.972142150175412695e-03
8.925642098787966213e-05
-6.512354314551938896e-03
-1.095656280776510609e-02
-1.317479703438574970e-02
-1.310914392912811144e-02
-1.081904805270748372e-02
-6.487234106824103959e-03
-3.284000945980508688e-04
7.319700477107594049e-03
1.608176210233396453e-03
-2.769702033761628664e-03
-5.944462937400502023e-03
-7.827340089629337277e-03
-8.296571121493789835e-03
-7.330754492850644066e-03
-5.074280534936429811e-03
-1.822360651490703047e-03
2.068264912427766802e-03
1.783221245734840921e-02
9.352067925612923480e-03
2.939795497065916894e-03
-1.942849551788138800e-03
-5.408781812034976245e-03
-7.384215666019796134e-03
-7.777644849461346974e-03
-6.583522718002479159e-03
-3.910952639744322279e-03
6.603112982915734493e-05
2.076015925735466908e-02
8.972142150190111007e-03
8.925642100590572942e-05
-6.512354314530092655e-03
-1.095656280774128487e-02
-1.317479703436016426e-02
-1.310914392910155109e-02
-1.081904805268225737e-02
-6.487234106801724291e-03
-3.284000945777733067e-04
7.319700477120211560e-03
1.608176210249734946e-03
-2.769702033741298138e-03
-5.944462937377076317e-03
-7.827340089601442924e-03
-8.296571121464634338e-03
-7.330754492820885752e-03
-5.074280534907379264e-03
-1.822360651464749633e-03
2.068264912450775306e-03
1.783221245735048741e-02
9.352067925615379848e-03
2.939795497069255369e-03
-1.942849551784300507e-03
-5.408781812030806838e-03
-7.384215666015261567e-03
-7.777644849457044859e-03
-6.583522717997995766e-03
-3.910952639740662880e-03
6.603112983253898506e-05
2.076015925736978546e-02
8.972142150209380315e-03
8.925642103015262352e-05
-6.512354314501249408e-03
-1.095656280770909360e-02
-1.317479703432609256e-02
-1.310914392906730244e-02
-1.081904805264869047e-02
-6.487234106771473316e-03
-3.284000945513307541e-04
7.319700477136912610e-03
1.608176210272039804e-03
-2.769702033713561211e-03
-5.944462937344090550e-03
-7.827340089564599132e-03
-8.296571121425641224e-03
-7.330754492780329652e-03
-5.074280534868966415e-03
-1.822360651428205731e-03
2.068264912481824255e-03
1.783221245735355787e-02
9.352067925619265629e-03
2.939795497073569193e-03
-1.942849551779257883e-03
-5.408781812024755255e-03
-7.384215666009330548e-03
-7.777644849450516228e-03
-6.583522717991687444e-03
-3.910952639734759616e-03
6.603112983720212505e-05
2.076015925734636322e-02
8.972142150178738160e-03
8.925642099240441727e-05
-6.512354314546343545e-03
-1.095656280775886456e-02
-1.317479703437889234e-02
-1.310914392912146224e-02
-1.081904805270130984e-02
-6.487234106818958769e-03
-3.284000945926233528e-04
7.319700477110820634e-03
1.608176210237649128e-03
-2.769702033756826082e-03
-5.944462937394928356e-03
-7.827340089622211033e-03
-8.296571121486248993e-03
-7.330754492843254144e-03
-5.074280534929352139e-03
-1.822360651483847637e-03
2.068264912433675270e-03
1.783221245734904065e-02
9.352067925613567062e-03
2.939795497066667596e-03
-1.942849551787235226e-03
-5.408781812033781888e-03
-7.384215666018729279e-03
-7.777644849460416294e-03
-6.583522718001153830e-03
-3.910952639743429764e-03
6.603112982966893927e-05
2.076015925732182729e-02
8.972142150146385567e-03
8.925642095167156506e-05
-6.512354314593753538e-03
-1.095656280781273466e-02
-1.317479703443637240e-02
-1.310914392917927711e-02
-1.081904805275646711e-02
-6.487234106869896322e-03
-3.284000946367123799e-04
7.319700477081685953e-03
1.608176210199716363e-03
-2.769702033804041352e-03
-5.944462937451290389e-03
-7.827340089685278640e-03
-8.296571121554081885e-03
-7.330754492910953463e-03
-5.074280534995614239e-03
-1.822360651544957392e-03
2.068264912380411019e-03
1.783221245734396138e-02
9.352067925606994195e-03
2.939795497058870014e-03
-1.942849551796429694e-03
-5.408781812044372375e-03
-7.384215666029231295e-03
-7.777644849471649496e-03
-6.583522718011767735e-03
-3.910952639753199726e-03
6.603112982129063146e-05
2.076015925679713936e-02
8.972142149459343130e-03
8.925642009637709212e-05
-6.512354315603568165e-03
-1.095656280894574328e-02
-1.317479703564275809e-02
-1.310914393039999508e-02
-1.081904805392854343e-02
-6.487234107940605815e-03
-3.284000955640815640e-04
7.319700476480539217e-03
1.608176209410661344e-03
-2.769702034786535386e-03
-5.944462938615496274e-03
-7.827340090998315125e-03
-8.296571122959742195e-03
-7.330754494340676122e-03
-5.074280536375165226e-03
-1.822360652810865126e-03
2.068264911271186762e-03
1.783221245724208801e-02
9.352067925475611443e-03
2.939795496895632534e-03
-1.942849551985820081e-03
-5.408781812256865593e-03
-7.384215666253256954e-03
-7.777644849698560868e-03
-6.583522718229263028e-03
-3.910952639952319093e-03
6.603112964748609787e-05
2.076015925656044328e-02
8.972142149148723544e-03
8.925641970904864427e-05
-6.512354316061275822e-03
-1.095656280946005583e-02
-1.317479703618719064e-02
-1.310914393095296941e-02
-1.081904805445918667e-02
-6.487234108425008264e-03
-3.284000959828945517e-04
7.319700476215762301e-03
1.608176209063385534e-03
-2.769702035219196671e-03
-5.944462939128486098e-03
-7.827340091575166192e-03
-8.296571123577440796e-03
-7.330754494968217544e-03
-5.074280536981920324e-03
-1.822360653370110051e-03
2.068264910783054224e-03
1.783221245719900441e-02
9.352067925419704775e-03
2.939795496827098814e-03
-1.942849552066289566e-03
-5.408781812346294057e-03
-7.384215666348161941e-03
-7.777644849794609037e-03
-6.583522718321243271e-03
-3.910952640036921557e-03
6.603112957396394976e-05
9.716454472155143796e-01
9.716454472156756950e-01
9.716454472156410560e-01
9.716454472154814059e-01
9.716454472161824008e-01
9.716454472162070477e-01
9.716454472161114575e-01
9.716454472161530909e-01
9.716454472165989564e-01
9.716454472165433343e-01
9.716454472165551026e-01
9.716454472165354517e-01
9.716454472168503109e-01
9.716454472168367662e-01
9.716454472168616352e-01
9.716454472168825074e-01
9.716454472171447421e-01
9.716454472175983792e-01
9.716454472172809664e-01
9.716454472174123058e-01
9.716454472174884671e-01
9.716454472176063728e-01
9.716454472175912738e-01
9.716454472176855317e-01
9.716454472177090684e-01
9.716454472177414869e-01
9.716454472176931922e-01
9.716454472176371260e-01
9.716454472165186873e-01
9.716454472160230837e-01
